{"weights":{"kernel":[[0.17488135397434235,-0.09495747834444046,-0.1893996298313141,-0.005545545369386673,-0.03706328943371773],[0.013537393882870674,-0.04256308451294899,-0.0011861826060339808,0.08225352317094803,0.048197127878665924],[0.19677698612213135,-0.018977448344230652,-0.02256661467254162,0.09625636041164398,-0.24235621094703674],[0.08026155829429626,0.0799981951713562,0.23752820491790771,-0.06976745277643204,-0.05060548335313797],[-0.09465096145868301,-0.2306830883026123,0.06291593611240387,-0.1347200870513916,-0.016937214881181717],[-0.04326803982257843,-0.038703761994838715,-0.2694677412509918,0.1061907634139061,0.012415464036166668],[0.05600908026099205,-0.18033304810523987,0.20185035467147827,0.0670633614063263,0.020644119009375572],[-0.1347784399986267,0.0783049687743187,-0.10765045881271362,-0.0857706144452095,0.19903993606567383],[-0.10382140427827835,0.2348722666501999,0.05951016768813133,0.22124779224395752,0.07461858540773392],[0.05762351304292679,-0.006234852597117424,0.11434450000524521,-0.05644293129444122,-0.07660812884569168],[0.05689920857548714,-0.11234584450721741,-0.08620046079158783,-0.14892897009849548,-0.1030358225107193],[0.014237184077501297,0.034937601536512375,0.2777678966522217,-0.15988819301128387,0.08858364820480347],[0.022195475175976753,0.1567477434873581,0.1693069189786911,0.2486756443977356,-0.11078759282827377],[0.016208691522479057,-0.1039038673043251,-0.16420377790927887,-0.1991383135318756,0.07784087210893631],[0.11774573475122452,-0.031062306836247444,-0.009645423851907253,-0.09936321526765823,0.10281979292631149],[0.044771958142519,0.0769803375005722,0.014122450724244118,-0.0790935754776001,-0.09124983102083206],[-0.02621910348534584,0.019192593172192574,0.0401574969291687,-0.0711803138256073,0.24372421205043793],[0.07930441945791245,-0.03614416718482971,0.10315759479999542,-0.08495304733514786,0.020334703847765923],[0.15533335506916046,0.0644855797290802,0.055051788687705994,0.22094666957855225,0.05812683701515198],[0.0682242214679718,-0.025814848020672798,0.03852379322052002,0.10159686952829361,0.014539383351802826],[-0.1842074692249298,-0.1816776692867279,-0.273501992225647,-0.10607029497623444,0.06552354991436005],[-0.11519979685544968,-0.14381489157676697,0.02897867187857628,-0.13964983820915222,-0.1568872630596161],[-0.017990723252296448,-0.1922464370727539,-0.13921402394771576,-0.0014312849380075932,0.14292016625404358],[0.06484824419021606,0.07367036491632462,-0.10414877533912659,-0.24280527234077454,-0.022958582267165184],[0.030897369608283043,-0.07970257103443146,0.14283455908298492,-0.18412798643112183,0.2171550691127777],[-0.01685764081776142,-0.009085319004952908,-0.061337750405073166,0.04141905531287193,0.10080604255199432],[-0.10313479602336884,-0.07138808816671371,-0.11723174154758453,0.2294745147228241,-0.2157716304063797],[0.17143750190734863,-0.07100754231214523,0.21036089956760406,0.04313736781477928,0.12600986659526825],[-0.06339199841022491,0.05446824058890343,-0.024928925558924675,-0.025866001844406128,-0.04044759273529053],[-0.16261808574199677,-0.1484631597995758,-0.21526695787906647,-0.0737718865275383,-0.09195739030838013],[-0.07606449723243713,0.1516750603914261,-0.17097821831703186,-0.17634668946266174,-0.06503304094076157],[-0.020447179675102234,0.0351257249712944,-0.044370245188474655,0.15905308723449707,-0.08147969096899033],[-0.019599106162786484,-0.13843241333961487,0.1416703760623932,0.23182925581932068,0.05339939147233963],[-0.099371537566185,-0.005522539839148521,-0.10110373795032501,-0.053588300943374634,0.07497737556695938],[0.12348495423793793,-0.09492316097021103,-0.040688082575798035,0.02199675515294075,0.17722532153129578],[0.01822187751531601,0.029268503189086914,-0.0031145289540290833,-0.11152820289134979,0.11501041054725647],[0.11665171384811401,-0.0629863515496254,-0.01611356809735298,0.18190297484397888,0.18254344165325165],[0.1564587652683258,-0.13378804922103882,0.1038990169763565,0.22380878031253815,0.21613039076328278],[0.04928797110915184,0.01878412254154682,0.0064303879626095295,0.07801567018032074,0.07676523923873901],[-0.09354443848133087,-0.12575674057006836,0.19955290853977203,-0.11435692012310028,-0.06996572762727737],[-0.17104937136173248,-0.08201856911182404,0.13877978920936584,-0.02531648799777031,-0.13828909397125244],[-0.14238426089286804,-0.032368406653404236,0.012539887800812721,-0.04823024198412895,0.15348196029663086],[0.14311356842517853,0.121971495449543,0.18760885298252106,0.09492885321378708,-0.07182873785495758],[0.08875571936368942,-0.0006675950717180967,-0.036312226206064224,0.08794080466032028,-0.09363599866628647],[-0.04266548529267311,-0.09346986562013626,-0.00085444311844185,0.11583124101161957,-0.09572295844554901],[-0.027779512107372284,-0.08173292130231857,0.11354275792837143,-0.09671323001384735,0.010422776453197002],[0.04015499725937843,0.1870795488357544,0.0009302814141847193,-0.009088429622352123,-0.06343477964401245],[0.03796221688389778,0.22345295548439026,-0.09878364950418472,0.05524391680955887,-0.12281831353902817],[-0.09105635434389114,0.021790264174342155,0.1315929889678955,0.005334107670933008,0.16323426365852356],[-0.13528698682785034,-0.2154536098241806,0.2020614892244339,0.15845967829227448,-0.04090588912367821],[0.10246080160140991,0.1117488369345665,-0.03329552337527275,0.05861566215753555,0.1442381590604782],[-0.1759055256843567,0.05609087273478508,0.06286120414733887,0.04556544870138168,0.012026636861264706],[0.0744304284453392,-0.2184518575668335,-0.1760111302137375,-0.13911035656929016,0.10844632983207703],[-0.0221419595181942,0.23794744908809662,0.01077137142419815,0.13006216287612915,0.10789044201374054],[0.20894268155097961,-0.02236071228981018,-0.002178603084757924,0.23654775321483612,0.17023338377475739],[-0.2174769937992096,0.11860895901918411,0.12219373136758804,-0.09013843536376953,0.07346603274345398],[0.08370498567819595,-0.10468217730522156,0.1739182323217392,0.059696096926927567,0.05767481401562691],[-0.019325103610754013,0.03389498591423035,-0.003134115831926465,-0.009197771549224854,-0.05655219033360481],[0.1632557511329651,-0.035109639167785645,0.052236780524253845,0.033395517617464066,0.03015522100031376],[0.014769770205020905,-0.07955917716026306,0.1754108965396881,0.07018090784549713,-0.038627952337265015],[0.09346959739923477,-0.02784442901611328,-0.2560444474220276,0.20906279981136322,0.13900862634181976],[-0.0941171944141388,-0.018382685258984566,0.04221880063414574,0.06069346144795418,-0.06651004403829575],[0.11801370978355408,-0.013196253217756748,0.10362020879983902,0.11519830673933029,0.14959843456745148],[0.24576818943023682,0.005984913557767868,0.020834432914853096,0.16130992770195007,0.038711704313755035],[0.2233242243528366,-0.0903470441699028,-0.08226265758275986,0.17614787817001343,-0.06318777054548264],[-0.072354257106781,0.0769968032836914,0.16102556884288788,0.015573503449559212,-0.13553664088249207],[0.024620825424790382,0.08127894997596741,0.14830967783927917,-0.15313522517681122,0.058665018528699875],[0.13725902140140533,0.19126245379447937,-0.10840026289224625,-0.036282509565353394,0.07513828575611115],[-0.1177658662199974,-0.02666708640754223,0.055515140295028687,-0.02748831734061241,-0.015681736171245575],[-0.09941258281469345,0.0910678505897522,0.056928373873233795,-0.22417597472667694,-0.045858677476644516],[0.011557504534721375,-0.13337135314941406,-0.03080744855105877,-0.16063319146633148,-0.1968594789505005],[-0.07320757210254669,0.025809217244386673,-0.0636378675699234,0.042655397206544876,0.029604913666844368],[0.1379092037677765,-0.0477110855281353,0.11669822782278061,-0.12386110424995422,0.15988695621490479],[0.02042321115732193,0.06076333299279213,-0.2633620500564575,0.03484310582280159,-0.06620754301548004],[0.07500964403152466,0.04097587987780571,-0.15279918909072876,-0.04756453260779381,0.06858973205089569],[0.0989559143781662,0.04949750751256943,0.2125246524810791,-0.03412783518433571,-0.2255190908908844],[-0.026623573154211044,0.13456448912620544,-0.1534324586391449,0.01816062442958355,0.06679444760084152],[-0.018675178289413452,-0.14003463089466095,-0.051176540553569794,0.1959579735994339,0.20111700892448425],[-0.07107340544462204,0.12684662640094757,0.11262204498052597,-0.022940009832382202,-0.027238648384809494],[0.1667993664741516,-0.06224018707871437,0.185059055685997,-0.16731561720371246,-0.1991446167230606],[-0.03149724751710892,-0.21355676651000977,0.09847734868526459,-0.09383158385753632,-0.19376644492149353],[0.015356837771832943,-0.15905030071735382,-0.09397859126329422,-0.24874795973300934,-0.1246156170964241],[-0.19519270956516266,-0.25951075553894043,-0.07161955535411835,0.1333349347114563,0.07345118373632431],[-0.156033456325531,-0.030583085492253304,-0.05165541172027588,0.061867281794548035,0.21996384859085083],[-0.12496431916952133,0.07251041382551193,0.1658044308423996,0.16281133890151978,-0.16720128059387207],[-0.11895117163658142,0.02486874721944332,-0.06356239318847656,0.1641499102115631,-0.13505329191684723],[-0.0726531594991684,-0.1905108392238617,-0.255740761756897,-0.2113056629896164,-0.07589130848646164],[0.25358816981315613,-0.004541485570371151,0.237654909491539,0.10690399259328842,-0.14777490496635437],[-0.10013018548488617,0.019602956250309944,0.05287244915962219,0.19929146766662598,-0.10413093864917755],[0.05369539186358452,-0.0894361212849617,0.18080247938632965,0.0018241675570607185,0.057189881801605225],[-0.16377034783363342,-0.13893499970436096,0.07345210760831833,0.0254751555621624,0.16838525235652924],[0.08410803228616714,-0.028844527900218964,-0.0867888480424881,0.0427924320101738,-0.03880772739648819],[-0.0719718486070633,0.14190174639225006,-0.03443913906812668,-0.1166960671544075,0.0145063241943717],[0.0015642300713807344,-0.02294127456843853,0.2412565052509308,-0.019040774554014206,0.0934610590338707],[0.11071057617664337,-0.27237915992736816,0.010931076481938362,-0.06537289172410965,-0.1277211308479309],[0.16558308899402618,-0.016451139003038406,-0.03323479741811752,0.24585579335689545,-0.16362307965755463]],"bias":[0.008347412571310997,0.0031357896514236927,0.0005054888315498829,-0.011069077998399734,-0.0009196131723001599]},"lookupList":["1","0","3","4+","2"],"version":"METASIM-1.0.0","tuningSetting":{"id":5,"optimizer":"sgd","learningRate":0.01,"batchSize":128,"epochs":100,"validationSplit":0.30000000000000004,"l2Regularization":0.1,"labelDef":{"name":"Steps","type":"Multiclass","allowedValues":["0","1","2","3","4+"]}}}